rows: 255
cols: 1
data: 
	-0.0783797 
	-0.495601 
	-0.133912 
	-0.92042 
	-0.727083 
	0.880487 
	-0.0705684 
	0.406777 
	0.518208 
	0.0114884 
	-0.907202 
	0.256609 
	-0.623022 
	-0.514439 
	0.594124 
	-0.408729 
	-0.636971 
	0.06979 
	0.534168 
	0.829491 
	0.640145 
	0.077794 
	-0.586688 
	0.00962976 
	0.0337778 
	0.0177015 
	0.672147 
	0.966427 
	-0.40283 
	0.0558297 
	0.518161 
	-0.76907 
	-0.726233 
	-0.610919 
	0.0200152 
	0.263182 
	-0.721156 
	0.958647 
	0.379947 
	-0.494722 
	0.679121 
	0.482206 
	0.7736 
	-0.232596 
	-0.323615 
	0.372104 
	0.365125 
	0.754383 
	-0.552992 
	-0.097269 
	0.592244 
	-0.204418 
	-0.306703 
	-0.284283 
	-0.480931 
	0.7363 
	-0.552944 
	-0.0984143 
	-0.589052 
	0.753545 
	0.966638 
	0.936502 
	-1.00744 
	-0.0463435 
	-0.667106 
	0.72433 
	-0.0769717 
	0.323991 
	-0.607033 
	-0.689146 
	0.838563 
	-0.921389 
	-0.496885 
	0.616266 
	-0.146634 
	0.896494 
	-0.00632633 
	-0.0684664 
	-0.64019 
	-0.847273 
	0.845307 
	-0.33869 
	0.662799 
	0.249773 
	0.386659 
	-0.813184 
	0.696309 
	-0.454933 
	0.802266 
	-0.886472 
	-0.693111 
	-0.523013 
	-0.241225 
	0.01367 
	0.438064 
	0.802963 
	0.448279 
	-0.632984 
	0.133795 
	0.852551 
	0.392165 
	0.684309 
	0.936585 
	-0.39266 
	0.307853 
	0.502155 
	-0.492845 
	0.012871 
	-0.560931 
	-0.122536 
	0.876349 
	-0.00572108 
	0.546261 
	0.546052 
	-0.75126 
	0.644277 
	-0.556892 
	0.954548 
	-0.100515 
	-0.0463654 
	-0.222535 
	0.215823 
	0.442741 
	0.54217 
	-0.0615803 
	0.590272 
	-0.940776 
	-0.604974 
	-0.331297 
	0.201859 
	-0.747265 
	-0.929327 
	-0.108541 
	-0.0974254 
	0.389951 
	-0.0922183 
	-0.587002 
	-0.388732 
	-0.366829 
	0.566247 
	-0.803692 
	0.219923 
	-0.432892 
	-0.54627 
	0.476192 
	0.531984 
	-0.89429 
	-0.368838 
	-0.80438 
	0.0137098 
	0.594075 
	-0.0200918 
	-0.0625047 
	0.0417482 
	0.236486 
	0.885338 
	0.344619 
	0.301707 
	-0.710981 
	-0.980453 
	0.213748 
	0.253334 
	-0.196603 
	-0.889133 
	-0.837339 
	-0.802323 
	0.734443 
	0.286674 
	-0.183725 
	0.0757478 
	0.564245 
	0.0236022 
	-0.696201 
	-0.861122 
	0.486363 
	0.785625 
	-0.621857 
	-0.694915 
	0.128528 
	-0.416828 
	-0.971359 
	-0.268571 
	-0.72373 
	-0.0223092 
	-0.518651 
	0.519104 
	0.57218 
	0.834432 
	-0.173749 
	-0.428537 
	0.862508 
	-0.950704 
	0.836492 
	-0.330111 
	-0.128207 
	-0.290775 
	0.584212 
	0.317932 
	-0.290727 
	0.110407 
	0.107789 
	-0.721077 
	-0.154331 
	0.420651 
	0.129804 
	-0.659062 
	0.916815 
	0.518048 
	0.358002 
	0.0538924 
	-0.186634 
	0.392676 
	-0.502971 
	0.0956098 
	0.0810209 
	-0.01522 
	-0.380501 
	0.368073 
	-0.171801 
	-0.841694 
	0.948482 
	0.403314 
	-0.081297 
	0.790382 
	-0.216349 
	0.802263 
	0.211727 
	-0.624907 
	0.830263 
	0.927353 
	-0.804359 
	-0.0564218 
	-0.787001 
	0.0515403 
	0.0719781 
	0.352775 
	0.39859 
	0.704418 
	0.580126 
	0.467237 
	-0.234574 
	-0.601059 
	0.574073 
	0.266966 
	0.503236 
	-0.341645 
	-0.0323816 
	-0.166539 
	-0.968232 
	0.802594 
	0.00424134 
	0.990698 
	0.917611 
	0.932607 
	-0.508064 
