rows: 750
cols: 1
data: 
	-0.0710711 
	-0.485485 
	-0.125125 
	-0.913914 
	-0.71972 
	0.887888 
	-0.0630631 
	0.415415 
	0.525526 
	0.019019 
	-0.8999 
	0.265265 
	-0.615616 
	-0.505506 
	0.601602 
	-0.401401 
	-0.62963 
	0.0770771 
	0.541542 
	0.837838 
	0.647648 
	0.0850851 
	-0.577578 
	0.017017 
	0.041041 
	0.025025 
	0.67968 
	0.973974 
	-0.395395 
	0.0650651 
	0.525526 
	-0.761762 
	-0.717718 
	-0.601602 
	0.029029 
	0.269269 
	-0.713714 
	0.965966 
	0.387387 
	-0.485485 
	0.687688 
	0.489489 
	0.77978 
	-0.225225 
	-0.313313 
	0.379379 
	0.373373 
	0.761762 
	-0.545546 
	-0.0870871 
	0.5996 
	-0.195195 
	-0.299299 
	-0.275275 
	-0.473473 
	0.743744 
	-0.545546 
	-0.0910911 
	-0.581582 
	0.763764 
	0.973974 
	0.943944 
	-1 
	-0.039039 
	-0.65966 
	0.733734 
	-0.0670671 
	0.331331 
	-0.5996 
	-0.681682 
	0.845846 
	-0.913914 
	-0.489489 
	0.623624 
	-0.139139 
	0.903904 
	0.001001 
	-0.0610611 
	-0.633634 
	-0.83984 
	0.851852 
	-0.331331 
	0.66967 
	0.257257 
	0.395395 
	-0.805806 
	0.703704 
	-0.447447 
	0.80981 
	-0.87988 
	-0.685686 
	-0.515516 
	-0.233233 
	0.021021 
	0.445445 
	0.811812 
	0.457457 
	-0.623624 
	0.143143 
	0.85986 
	0.401401 
	0.691692 
	0.945946 
	-0.385385 
	0.315315 
	0.511512 
	-0.483483 
	0.019019 
	-0.551552 
	-0.115115 
	0.883884 
	0.003003 
	0.553554 
	0.553554 
	-0.741742 
	0.651652 
	-0.54955 
	0.961962 
	-0.0930931 
	-0.037037 
	-0.215215 
	0.223223 
	0.449449 
	0.551552 
	-0.0530531 
	0.597598 
	-0.933934 
	-0.597598 
	-0.321321 
	0.209209 
	-0.73974 
	-0.921922 
	-0.101101 
	-0.0890891 
	0.397397 
	-0.0830831 
	-0.57958 
	-0.381381 
	-0.359359 
	0.573574 
	-0.793794 
	0.227227 
	-0.425425 
	-0.537538 
	0.483483 
	0.53954 
	-0.885886 
	-0.361361 
	-0.797798 
	0.021021 
	0.601602 
	-0.011011 
	-0.0530531 
	0.049049 
	0.243243 
	0.893894 
	0.351351 
	0.309309 
	-0.703704 
	-0.971972 
	0.221221 
	0.261261 
	-0.189189 
	-0.87988 
	-0.82983 
	-0.793794 
	0.741742 
	0.295295 
	-0.175175 
	0.0850851 
	0.571572 
	0.031031 
	-0.687688 
	-0.853854 
	0.495495 
	0.795796 
	-0.611612 
	-0.687688 
	0.137137 
	-0.409409 
	-0.963964 
	-0.261261 
	-0.717718 
	-0.015015 
	-0.50951 
	0.527528 
	0.581582 
	0.841842 
	-0.165165 
	-0.419419 
	0.86987 
	-0.943944 
	0.843844 
	-0.321321 
	-0.119119 
	-0.283283 
	0.591592 
	0.325325 
	-0.283283 
	0.119119 
	0.115115 
	-0.713714 
	-0.145145 
	0.427427 
	0.137137 
	-0.651652 
	0.925926 
	0.525526 
	0.365365 
	0.0630631 
	-0.179179 
	0.401401 
	-0.495495 
	0.103103 
	0.0890891 
	-0.00500501 
	-0.371371 
	0.375375 
	-0.163163 
	-0.831832 
	0.955956 
	0.409409 
	-0.0710711 
	0.797798 
	-0.207207 
	0.80981 
	0.219219 
	-0.617618 
	0.837838 
	0.935936 
	-0.795796 
	-0.049049 
	-0.77978 
	0.0590591 
	0.0810811 
	0.359359 
	0.407407 
	0.711712 
	0.587588 
	0.475475 
	-0.227227 
	-0.593594 
	0.581582 
	0.277277 
	0.511512 
	-0.331331 
	-0.025025 
	-0.157157 
	-0.957958 
	0.811812 
	0.011011 
	1 
	0.925926 
	0.93994 
	-0.501502 
	-0.283283 
	-0.54955 
	0.717718 
	0.803804 
	-0.00700701 
	-0.645646 
	-0.993994 
	0.943944 
	-0.423423 
	0.0670671 
	0.72973 
	-0.361361 
	0.177177 
	0.439439 
	-0.775776 
	-0.347347 
	-0.0850851 
	-0.367367 
	-0.767768 
	-0.105105 
	-0.153153 
	0.605606 
	0.86987 
	0.68969 
	-0.647648 
	-0.615616 
	-0.299299 
	0.0550551 
	-0.691692 
	0.343343 
	0.553554 
	0.72973 
	0.795796 
	0.975976 
	0.531532 
	-0.213213 
	-0.671672 
	-0.75976 
	0.433433 
	0.60961 
	0.307307 
	0.161161 
	-0.753754 
	0.189189 
	0.303303 
	0.177177 
	-0.455455 
	-0.783784 
	-0.487487 
	0.481481 
	0.111111 
	0.359359 
	0.0850851 
	0.685686 
	0.751752 
	0.437437 
	-0.227227 
	0.155155 
	0.195195 
	0.0810811 
	-0.501502 
	-0.251251 
	0.513514 
	-0.003003 
	0.427427 
	0.747748 
	-0.513514 
	-0.541542 
	0.987988 
	-0.377377 
	-0.931932 
	1 
	-0.511512 
	0.019019 
	0.187187 
	0.791792 
	-0.805806 
	0.731732 
	-0.287287 
	-0.293293 
	0.211211 
	-0.473473 
	-0.231231 
	-0.001001 
	-0.78979 
	0.225225 
	0.141141 
	-0.017017 
	-0.621622 
	-0.665666 
	-0.233233 
	-0.123123 
	0.787788 
	-0.017017 
	-0.423423 
	0.917918 
	-0.271271 
	0.767768 
	-0.623624 
	-0.283283 
	-0.60961 
	0.149149 
	-0.285285 
	-0.121121 
	-0.833834 
	-0.395395 
	-0.331331 
	0.0670671 
	0.039039 
	-0.915916 
	-0.523524 
	-0.047047 
	-0.387387 
	0.951952 
	-0.345345 
	-0.177177 
	0.175175 
	0.795796 
	-0.489489 
	0.553554 
	-0.165165 
	0.981982 
	0.135135 
	-0.379379 
	-0.035035 
	0.711712 
	0.243243 
	0.693694 
	0.479479 
	0.61962 
	0.113113 
	-0.427427 
	-0.233233 
	-0.469469 
	0.451451 
	0.637638 
	0.83984 
	-0.177177 
	0.407407 
	-0.123123 
	-0.0910911 
	0.885886 
	0.82983 
	0.521522 
	0.835836 
	-0.515516 
	0.047047 
	0.00900901 
	-0.017017 
	-0.73974 
	0.265265 
	0.817818 
	-0.0530531 
	-0.601602 
	0.143143 
	0.911912 
	-0.185185 
	0.0890891 
	-0.693694 
	-0.003003 
	-0.293293 
	0.421421 
	0.56957 
	-0.823824 
	-0.345345 
	0.723724 
	-0.483483 
	-0.505506 
	-0.455455 
	0.925926 
	0.371371 
	-0.843844 
	-0.487487 
	0.905906 
	-0.61962 
	0.0510511 
	0.0930931 
	-0.867868 
	-0.237237 
	-0.221221 
	0.0970971 
	-0.973974 
	0.301301 
	-0.957958 
	0.131131 
	0.147147 
	0.953954 
	-0.351351 
	-0.765766 
	-0.73974 
	-0.651652 
	0.645646 
	-0.615616 
	0.917918 
	0.821822 
	0.743744 
	-0.657658 
	0.041041 
	-0.763764 
	0.591592 
	0.66967 
	-0.687688 
	0.74975 
	-0.81982 
	-0.0790791 
	-0.167167 
	0.231231 
	-0.987988 
	-0.035035 
	0.993994 
	0.495495 
	-0.937938 
	-0.275275 
	-0.205205 
	-0.895896 
	0.855856 
	0.941942 
	-0.237237 
	0.207207 
	-0.121121 
	0.727728 
	0.555556 
	-0.477477 
	-0.185185 
	-0.825826 
	0.047047 
	-0.443443 
	-0.483483 
	-0.911912 
	-0.205205 
	-0.893894 
	0.757758 
	0.811812 
	-0.441441 
	-0.357357 
	-0.269269 
	-0.903904 
	0.873874 
	0.447447 
	0.0610611 
	-0.429429 
	-0.0590591 
	0.827828 
	0.295295 
	0.737738 
	-0.363363 
	0.853854 
	-0.61962 
	-0.897898 
	0.0590591 
	0.261261 
	0.82983 
	-0.387387 
	-0.513514 
	-0.357357 
	-0.213213 
	0.535536 
	0.199199 
	-0.993994 
	-0.673674 
	-0.303303 
	-0.183183 
	-0.917918 
	-0.493493 
	-0.91992 
	-0.275275 
	0.237237 
	-0.823824 
	0.303303 
	0.387387 
	0.941942 
	-0.423423 
	-0.671672 
	0.76977 
	0.871872 
	-0.231231 
	0.109109 
	-0.573574 
	0.853854 
	0.211211 
	-0.811812 
	0.113113 
	0.039039 
	-0.199199 
	-0.695696 
	-0.615616 
	-0.70971 
	0.83984 
	-0.713714 
	0.001001 
	-0.835836 
	0.68969 
	0.817818 
	-0.049049 
	-0.101101 
	-0.399399 
	-0.61962 
	-0.159159 
	-0.223223 
	0.683684 
	-0.773774 
	-0.281281 
	-0.741742 
	-0.445445 
	0.191191 
	-0.167167 
	0.323323 
	0.003003 
	0.963964 
	0.177177 
	-0.787788 
	-0.84985 
	-0.00700701 
	0.955956 
	-0.049049 
	0.297297 
	0.043043 
	0.945946 
	0.83984 
	-0.967968 
	0.64965 
	-0.997998 
	0.721722 
	0.465465 
	0.65966 
	-0.379379 
	-0.229229 
	-0.961962 
	0.461461 
	0.547548 
	-0.575576 
	0.687688 
	-0.031031 
	0.387387 
	-0.0530531 
	-0.137137 
	-0.781782 
	-0.027027 
	0.865866 
	-0.81982 
	-0.851852 
	-0.219219 
	-0.66967 
	0.847848 
	0.439439 
	0.985986 
	0.847848 
	-0.51952 
	-0.367367 
	0.687688 
	-0.485485 
	-0.71972 
	-0.607608 
	-0.0610611 
	-0.551552 
	-0.245245 
	0.55956 
	0.219219 
	-0.207207 
	0.723724 
	0.471471 
	0.217217 
	0.411411 
	0.143143 
	-0.397397 
	-0.643644 
	-0.993994 
	0.525526 
	0.329329 
	-0.425425 
	-0.591592 
	-0.817818 
	0.357357 
	0.443443 
	-0.267267 
	-0.205205 
	-0.86987 
	-0.421421 
	0.981982 
	-0.237237 
	-0.031031 
	0.199199 
	0.747748 
	-0.933934 
	-0.863864 
	-0.803804 
	-0.179179 
	-0.5996 
	-0.881882 
	-0.681682 
	-0.877878 
	-0.707708 
	-0.761762 
	0.533534 
	0.437437 
	-0.157157 
	-0.407407 
	0.443443 
	0.0710711 
	-0.373373 
	-0.983984 
	0.481481 
	0.513514 
	-0.923924 
	0.627628 
	-0.755756 
	0.577578 
	0.75976 
	0.527528 
	-0.73974 
	-0.479479 
	0.201201 
	0.459459 
	-0.027027 
	0.971972 
	-0.701702 
	0.873874 
	0.495495 
	-0.301301 
	0.991992 
	0.813814 
	-0.177177 
	-0.011011 
	-0.947948 
	0.0590591 
	-0.575576 
	0.5996 
	0.653654 
	0.867868 
	0.373373 
	-0.017017 
	-0.413413 
	0.557558 
	-0.505506 
	0.369369 
	0.185185 
	-0.261261 
	-0.0550551 
	-0.0570571 
	-0.031031 
	0.205205 
	-0.833834 
	-0.831832 
	0.367367 
	0.139139 
	-0.861862 
	0.665666 
	0.011011 
	0.635636 
	0.0690691 
	0.707708 
	-0.84985 
	0.891892 
	-0.305305 
	-0.0930931 
	0.653654 
	0.119119 
	-0.495495 
	0.305305 
	0.68969 
	0.87988 
	-0.00900901 
	-0.021021 
	0.435435 
	0.485485 
	-0.653654 
	0.323323 
	-0.0730731 
	0.995996 
	-0.735736 
	-0.399399 
	0.903904 
	-0.567568 
	-0.231231 
	0.973974 
	-0.725726 
	0.613614 
	0.63964 
	0.287287 
	0.951952 
	0.411411 
	0.697698 
	-0.195195 
	0.301301 
	-0.60961 
	0.713714 
	-0.047047 
	-0.787788 
	-0.783784 
	-0.037037 
	0.901902 
	-0.201201 
	-0.343343 
	0.583584 
	-0.0610611 
