rows: 255
cols: 1
data: 
	-0.642425 
	0.716871 
	-0.832685 
	-0.115954 
	-0.0238479 
	0.975108 
	0.582741 
	-0.370187 
	0.927127 
	-0.844675 
	-0.91072 
	0.270374 
	-0.137937 
	0.672845 
	-0.626496 
	-0.886742 
	-0.992846 
	0.802989 
	0.338488 
	0.110229 
	0.766917 
	0.228428 
	0.380571 
	0.913087 
	0.985171 
	-0.232035 
	-0.840713 
	-0.486349 
	0.338525 
	0.124231 
	0.678864 
	0.698866 
	-0.16009 
	0.846862 
	0.286423 
	-0.480318 
	-0.474352 
	-0.13205 
	0.150334 
	0.156312 
	0.0241851 
	0.94514 
	-0.574423 
	-0.408224 
	-0.680477 
	-0.200119 
	-0.294133 
	-0.672544 
	0.308473 
	-0.252111 
	-0.858688 
	0.778957 
	-0.318123 
	0.524668 
	0.69282 
	-0.334236 
	-0.708498 
	0.853022 
	0.180381 
	0.632748 
	-0.0238708 
	0.562689 
	-0.966813 
	-0.48032 
	-0.886708 
	0.320434 
	0.0402068 
	-0.36015 
	-0.81069 
	-0.105953 
	0.796945 
	0.919113 
	0.542696 
	-0.0738872 
	-0.490457 
	0.862966 
	-0.57036 
	0.921084 
	-0.810618 
	-0.558379 
	0.374512 
	-0.666513 
	-0.778726 
	-0.944823 
	-0.438273 
	0.915045 
	-0.278075 
	0.558713 
	-0.530341 
	-0.392253 
	0.190352 
	-0.850735 
	-0.830713 
	0.224442 
	0.374553 
	-0.716531 
	0.250443 
	-0.586428 
	0.628798 
	0.440457 
	-0.988805 
	-0.872663 
	-0.93875 
	0.55475 
	0.758927 
	0.278464 
	-0.880693 
	-0.810651 
	0.198302 
	-0.690564 
	-0.368191 
	0.276472 
	0.348484 
	0.558716 
	0.332379 
	0.911115 
	-0.824675 
	-0.240084 
	0.470638 
	-0.354183 
	0.368525 
	0.364501 
	0.500661 
	-0.758604 
	0.294455 
	-0.125945 
	0.232365 
	-0.456308 
	0.993121 
	-0.139947 
	-0.312132 
	-0.996818 
	0.69489 
	-0.250104 
	-0.738601 
	0.452606 
	-0.972795 
	-0.618507 
	-0.654537 
	0.933071 
	0.398415 
	-0.019838 
	0.208392 
	-0.254041 
	0.242442 
	0.246417 
	0.36246 
	0.420561 
	-0.994786 
	0.536682 
	-0.230063 
	0.374529 
	0.604729 
	-0.728582 
	0.616828 
	-0.101911 
	0.146336 
	-0.151958 
	-0.854772 
	0.844997 
	-0.5864 
	-0.166015 
	-0.448433 
	-0.188003 
	-0.710565 
	-0.184068 
	-0.736554 
	0.0221485 
	0.903061 
	-0.388232 
	-0.0458606 
	-0.996819 
	-0.704506 
	-0.131968 
	0.456565 
	0.538554 
	-0.886759 
	0.522688 
	0.66283 
	-0.175983 
	0.0582828 
	-0.566395 
	-0.802667 
	-0.338135 
	0.410425 
	-0.482331 
	-0.734561 
	0.260456 
	-0.928794 
	-0.588413 
	0.104229 
	0.190381 
	0.248408 
	0.658799 
	-0.998789 
	-0.758623 
	0.178382 
	-0.0299037 
	0.264414 
	0.784905 
	0.582739 
	-0.0759291 
	-0.506381 
	-0.418348 
	-0.504374 
	0.951147 
	-0.174067 
	0.314457 
	0.472683 
	0.192378 
	-0.862662 
	-0.470378 
	0.626677 
	0.0402246 
	0.897083 
	0.740889 
	-0.738572 
	-0.838694 
	0.0021734 
	-0.666473 
	-0.424292 
	-0.19003 
	-0.772588 
	-0.472282 
	0.172349 
	-0.0658621 
	0.474668 
	0.0542477 
	0.907088 
	-0.262078 
	0.544689 
	-0.808696 
	-0.634451 
	-0.962766 
	-0.224077 
	-0.137981 
	0.989131 
	-0.694547 
	-0.119969 
	-0.836632 
	0.498629 
	0.0181698 
	0.398559 
	0.831008 
	-0.942809 
	0.294421 
	0.570736 
	-0.678485 
	-0.838658 
	0.276452 
	0.360478 
	0.442573 
	-0.912717 
	0.590742 
	-0.326107 
