rows: 750
cols: 1
data: 
	-0.641642 
	0.717718 
	-0.831832 
	-0.115115 
	-0.023023 
	0.975976 
	0.583584 
	-0.369369 
	0.927928 
	-0.843844 
	-0.90991 
	0.271271 
	-0.137137 
	0.673674 
	-0.625626 
	-0.885886 
	-0.991992 
	0.803804 
	0.339339 
	0.111111 
	0.767768 
	0.229229 
	0.381381 
	0.913914 
	0.985986 
	-0.231231 
	-0.83984 
	-0.485485 
	0.339339 
	0.125125 
	0.67968 
	0.6997 
	-0.159159 
	0.847848 
	0.287287 
	-0.479479 
	-0.473473 
	-0.131131 
	0.151151 
	0.157157 
	0.025025 
	0.945946 
	-0.573574 
	-0.407407 
	-0.67968 
	-0.199199 
	-0.293293 
	-0.671672 
	0.309309 
	-0.251251 
	-0.857858 
	0.77978 
	-0.317317 
	0.525526 
	0.693694 
	-0.333333 
	-0.707708 
	0.853854 
	0.181181 
	0.633634 
	-0.023023 
	0.563564 
	-0.965966 
	-0.479479 
	-0.885886 
	0.321321 
	0.041041 
	-0.359359 
	-0.80981 
	-0.105105 
	0.797798 
	0.91992 
	0.543544 
	-0.0730731 
	-0.489489 
	0.863864 
	-0.56957 
	0.921922 
	-0.80981 
	-0.557558 
	0.375375 
	-0.665666 
	-0.777778 
	-0.943944 
	-0.437437 
	0.915916 
	-0.277277 
	0.55956 
	-0.52953 
	-0.391391 
	0.191191 
	-0.84985 
	-0.82983 
	0.225225 
	0.375375 
	-0.715716 
	0.251251 
	-0.585586 
	0.62963 
	0.441441 
	-0.987988 
	-0.871872 
	-0.937938 
	0.555556 
	0.75976 
	0.279279 
	-0.87988 
	-0.80981 
	0.199199 
	-0.68969 
	-0.367367 
	0.277277 
	0.349349 
	0.55956 
	0.333333 
	0.911912 
	-0.823824 
	-0.239239 
	0.471471 
	-0.353353 
	0.369369 
	0.365365 
	0.501502 
	-0.757758 
	0.295295 
	-0.125125 
	0.233233 
	-0.455455 
	0.993994 
	-0.139139 
	-0.311311 
	-0.995996 
	0.695696 
	-0.249249 
	-0.737738 
	0.453453 
	-0.971972 
	-0.617618 
	-0.653654 
	0.933934 
	0.399399 
	-0.019019 
	0.209209 
	-0.253253 
	0.243243 
	0.247247 
	0.363363 
	0.421421 
	-0.993994 
	0.537538 
	-0.229229 
	0.375375 
	0.605606 
	-0.727728 
	0.617618 
	-0.101101 
	0.147147 
	-0.151151 
	-0.853854 
	0.845846 
	-0.585586 
	-0.165165 
	-0.447447 
	-0.187187 
	-0.70971 
	-0.183183 
	-0.735736 
	0.023023 
	0.903904 
	-0.387387 
	-0.045045 
	-0.995996 
	-0.703704 
	-0.131131 
	0.457457 
	0.53954 
	-0.885886 
	0.523524 
	0.663664 
	-0.175175 
	0.0590591 
	-0.565566 
	-0.801802 
	-0.337337 
	0.411411 
	-0.481481 
	-0.733734 
	0.261261 
	-0.927928 
	-0.587588 
	0.105105 
	0.191191 
	0.249249 
	0.65966 
	-0.997998 
	-0.757758 
	0.179179 
	-0.029029 
	0.265265 
	0.785786 
	0.583584 
	-0.0750751 
	-0.505506 
	-0.417417 
	-0.503504 
	0.951952 
	-0.173173 
	0.315315 
	0.473473 
	0.193193 
	-0.861862 
	-0.469469 
	0.627628 
	0.041041 
	0.897898 
	0.741742 
	-0.737738 
	-0.837838 
	0.003003 
	-0.665666 
	-0.423423 
	-0.189189 
	-0.771772 
	-0.471471 
	0.173173 
	-0.0650651 
	0.475475 
	0.0550551 
	0.907908 
	-0.261261 
	0.545546 
	-0.807808 
	-0.633634 
	-0.961962 
	-0.223223 
	-0.137137 
	0.98999 
	-0.693694 
	-0.119119 
	-0.835836 
	0.499499 
	0.019019 
	0.399399 
	0.831832 
	-0.941942 
	0.295295 
	0.571572 
	-0.677678 
	-0.837838 
	0.277277 
	0.361361 
	0.443443 
	-0.911912 
	0.591592 
	-0.325325 
	0.965966 
	-0.475475 
	-0.851852 
	0.021021 
	0.135135 
	0.591592 
	-0.435435 
	0.329329 
	-0.337337 
	-0.397397 
	-0.191191 
	0.525526 
	0.295295 
	0.115115 
	-0.593594 
	-0.837838 
	0.317317 
	-0.871872 
	0.561562 
	0.147147 
	-0.811812 
	0.55956 
	0.423423 
	0.215215 
	0.721722 
	-0.301301 
	0.279279 
	0.867868 
	-0.213213 
	-0.131131 
	-0.459459 
	0.457457 
	-0.901902 
	0.393393 
	-0.523524 
	0.233233 
	-0.015015 
	0.041041 
	0.265265 
	0.647648 
	-0.653654 
	-0.927928 
	0.875876 
	-0.655656 
	0.891892 
	-0.015015 
	-0.493493 
	0.209209 
	0.115115 
	-0.229229 
	-0.645646 
	-0.993994 
	-0.671672 
	0.777778 
	0.925926 
	-0.245245 
	0.181181 
	0.203203 
	-0.379379 
	-0.329329 
	-0.223223 
	0.867868 
	-0.873874 
	0.57958 
	0.259259 
	-0.397397 
	0.515516 
	-0.0530531 
	-0.653654 
	-0.219219 
	0.297297 
	0.397397 
	0.557558 
	0.877878 
	-0.555556 
	0.449449 
	-0.139139 
	-0.049049 
	-0.343343 
	-0.321321 
	0.721722 
	0.715716 
	0.389389 
	-0.245245 
	-0.803804 
	-0.983984 
	0.50951 
	0.377377 
	0.925926 
	-0.167167 
	-0.953954 
	-0.299299 
	-0.301301 
	-0.825826 
	-0.017017 
	0.95996 
	0.481481 
	0.201201 
	0.60961 
	0.82983 
	0.981982 
	-0.0930931 
	0.92993 
	-0.757758 
	-0.217217 
	-0.625626 
	0.691692 
	-0.653654 
	-0.971972 
	0.0510511 
	0.731732 
	-0.545546 
	0.469469 
	0.119119 
	0.209209 
	0.665666 
	0.841842 
	0.421421 
	0.041041 
	0.765766 
	-0.747748 
	0.793794 
	0.169169 
	-0.047047 
	-0.329329 
	-0.84985 
	0.615616 
	-0.84985 
	0.351351 
	0.223223 
	-0.317317 
	-0.963964 
	-0.871872 
	0.317317 
	-0.721722 
	0.615616 
	0.691692 
	-0.327327 
	0.963964 
	0.71972 
	0.723724 
	0.693694 
	-0.827828 
	0.191191 
	0.515516 
	-0.915916 
	0.561562 
	0.355355 
	0.505506 
	0.305305 
	0.119119 
	-0.537538 
	0.0970971 
	-0.00900901 
	0.415415 
	-0.52953 
	0.845846 
	0.733734 
	-0.377377 
	0.901902 
	-0.045045 
	-0.991992 
	0.937938 
	0.78979 
	0.325325 
	-0.0810811 
	0.403403 
	0.71972 
	-0.705706 
	-0.931932 
	0.439439 
	-0.983984 
	-0.535536 
	-0.685686 
	0.911912 
	0.981982 
	0.105105 
	0.471471 
	-0.961962 
	0.313313 
	0.481481 
	0.863864 
	0.775776 
	-0.423423 
	-0.147147 
	0.893894 
	0.049049 
	-0.301301 
	0.625626 
	-0.625626 
	-0.401401 
	0.285285 
	-0.617618 
	0.239239 
	0.0730731 
	-0.587588 
	-0.139139 
	0.179179 
	-0.86987 
	0.155155 
	0.953954 
	-0.727728 
	0.875876 
	-0.583584 
	0.293293 
	-0.511512 
	0.101101 
	-0.603604 
	0.961962 
	0.141141 
	0.70971 
	-0.855856 
	0.003003 
	0.485485 
	-0.279279 
	0.855856 
	-0.91992 
	-0.527528 
	0.257257 
	0.707708 
	-0.153153 
	-0.441441 
	0.695696 
	0.935936 
	0.797798 
	-0.233233 
	0.0510511 
	0.361361 
	-0.351351 
	0.181181 
	-0.485485 
	0.305305 
	0.455455 
	0.0930931 
	0.723724 
	-0.253253 
	0.583584 
	-0.177177 
	0.847848 
	-0.753754 
	0.963964 
	0.555556 
	-0.60961 
	-0.035035 
	0.743744 
	0.815816 
	0.525526 
	-0.471471 
	-0.711712 
	0.485485 
	-0.765766 
	0.83984 
	-0.955956 
	0.92993 
	-0.523524 
	-0.455455 
	0.399399 
	0.527528 
	0.907908 
	-0.249249 
	0.413413 
	0.125125 
	-0.943944 
	0.571572 
	-0.781782 
	-0.517518 
	-0.683684 
	-0.495495 
	0.305305 
	-0.133133 
	-0.249249 
	0.973974 
	-0.57958 
	0.141141 
	0.641642 
	-0.131131 
	0.65966 
	0.86987 
	0.397397 
	0.947948 
	0.355355 
	-0.665666 
	-0.50951 
	0.399399 
	-0.033033 
	-0.033033 
	0.943944 
	0.0690691 
	0.199199 
	-0.447447 
	-0.477477 
	-0.389389 
	0.67968 
	-0.421421 
	-0.81982 
	-0.399399 
	0.765766 
	0.201201 
	0.105105 
	0.775776 
	-0.933934 
	-0.441441 
	0.747748 
	0.191191 
	-0.597598 
	-0.90991 
	-0.237237 
	-0.93994 
	0.961962 
	-0.137137 
	-0.287287 
	0.315315 
	0.901902 
	0.203203 
	0.417417 
	-0.133133 
	-0.127127 
	0.359359 
	-0.361361 
	-0.92993 
	-0.383383 
	0.163163 
	-0.319319 
	-0.001001 
	-0.555556 
	0.565566 
	0.5996 
	-0.78979 
	-0.235235 
	0.407407 
	0.985986 
	0.535536 
	-0.331331 
	-0.565566 
	-0.273273 
	0.775776 
	-0.475475 
	-0.807808 
	0.835836 
	-0.515516 
	0.0570571 
	-0.453453 
	-0.497497 
	-0.043043 
	-0.547548 
	0.91992 
	-0.471471 
	0.327327 
	0.983984 
	0.167167 
	-0.8999 
	0.303303 
	-0.671672 
	0.487487 
	-0.6997 
	0.479479 
	0.0510511 
	-0.397397 
	0.68969 
	-0.479479 
	-0.287287 
	-0.623624 
	-0.241241 
	0.381381 
	-0.189189 
	-0.811812 
	0.155155 
	0.335335 
	-0.617618 
	0.693694 
	-0.475475 
	0.439439 
	-0.0550551 
	0.731732 
	0.0990991 
	0.397397 
	-0.645646 
	0.627628 
	0.427427 
	0.041041 
	0.499499 
	0.52953 
	-0.657658 
	-0.469469 
	0.015015 
	0.347347 
	-0.991992 
	-0.231231 
	0.94995 
	-0.5996 
	0.289289 
	-0.339339 
	-0.223223 
	-0.951952 
	-0.255255 
	0.587588 
	-0.763764 
	-0.397397 
	0.627628 
	0.323323 
	-0.705706 
	-0.145145 
	0.465465 
	0.239239 
	-0.415415 
	-0.435435 
	0.341341 
	0.643644 
	-0.105105 
	-0.233233 
	-0.317317 
	0.0970971 
	-0.001001 
	0.72973 
	0.62963 
	-0.987988 
	0.0750751 
	-0.65966 
	-0.217217 
	0.727728 
	-0.257257 
	-0.225225 
	0.0910911 
	-0.777778 
	0.527528 
	0.835836 
	0.811812 
	0.765766 
	-0.563564 
	-0.85986 
	0.0870871 
	0.437437 
	0.6997 
	-0.447447 
	-0.325325 
	-0.013013 
	0.821822 
	-0.281281 
	-0.369369 
	-0.285285 
	-0.80981 
	-0.983984 
	-0.483483 
	0.189189 
	-0.54955 
	-0.855856 
	0.907908 
	-0.771772 
	-0.515516 
	0.393393 
	0.957958 
	0.931932 
	-0.833834 
	0.047047 
	-0.845846 
	0.695696 
	-0.117117 
	-0.331331 
	-0.837838 
	-0.977978 
	0.513514 
	0.249249 
	0.459459 
	0.211211 
	-0.495495 
	-0.161161 
	-0.803804 
	-0.675676 
	0.557558 
	0.531532 
	0.745746 
	0.747748 
	0.54955 
	-0.73974 
	0.641642 
	-0.297297 
	0.109109 
	0.547548 
	-0.0690691 
	-0.703704 
	-0.0610611 
	-0.113113 
	-0.771772 
	0.105105 
	-0.361361 
	0.0870871 
	0.503504 
	-0.775776 
	0.755756 
	0.665666 
	-0.753754 
	0.971972 
	0.61962 
	0.707708 
	0.181181 
